0.000000000000000000e+00 0.000000000000000000e+00 0.000000000000000000e+00 0.000000000000000000e+00 1.922417449295208235e-13 5.652458806329471788e-13 5.578373660355075064e-14 1.217798590268152799e-15 -1.984249277932815537e-14 3.595369191282725888e-14
0.000000000000000000e+00 0.000000000000000000e+00 0.000000000000000000e+00 0.000000000000000000e+00 -1.700376478029037918e-13 -2.608602338082050251e-13 -1.927310471808155563e-14 -4.014233091682725496e-15 1.474382232673666052e-15 -3.121009631016278018e-14
0.000000000000000000e+00 0.000000000000000000e+00 0.000000000000000000e+00 0.000000000000000000e+00 -3.811627792453031738e+00 -3.193811495120807198e+00 9.734392663791911759e-03 1.578344485639992731e-02 -1.454950752986120810e-01 -9.133616729460362071e-01
0.000000000000000000e+00 0.000000000000000000e+00 0.000000000000000000e+00 0.000000000000000000e+00 1.667963836116720833e+00 2.993154946261949334e+00 2.568822828137852232e-01 -3.609685300299646932e-02 -1.125007378871367009e-01 2.986162080386086659e-01
0.000000000000000000e+00 0.000000000000000000e+00 0.000000000000000000e+00 0.000000000000000000e+00 2.459145595544178331e+00 3.362336159741486696e+00 2.985157434492445860e-01 1.498091469386642338e-01 1.069135375496913232e-01 8.361566951653560675e-01
0.000000000000000000e+00 0.000000000000000000e+00 0.000000000000000000e+00 0.000000000000000000e+00 -1.431402382896421877e+01 -1.935165116413928033e+01 -1.311740859868271158e+00 2.544176032985213248e-02 3.596717705673455057e-01 -2.108043523076955861e+00
0.000000000000000000e+00 0.000000000000000000e+00 0.000000000000000000e+00 0.000000000000000000e+00 7.110963520443829289e+00 2.866244480602502520e+01 3.199086370734501639e+00 3.031931271800178407e-01 -1.577270189242734100e+00 3.861248231544713028e-02
0.000000000000000000e+00 0.000000000000000000e+00 0.000000000000000000e+00 0.000000000000000000e+00 9.912105269810169261e+00 -9.357090849021190593e+00 -1.659416698451906091e+00 6.318831191110940715e-01 1.427146935509291170e+00 1.142306506025662083e+00
0.000000000000000000e+00 0.000000000000000000e+00 0.000000000000000000e+00 0.000000000000000000e+00 -1.862690589568022403e+01 -1.951187655127016995e+01 -6.907695003100928766e-01 -5.300992055541111636e-01 -2.364551365553662077e-01 -3.055019292915315710e+00
0.000000000000000000e+00 0.000000000000000000e+00 0.000000000000000000e+00 0.000000000000000000e+00 1.435284271717249638e+01 1.674884236930482473e+01 1.161499647446400996e+00 4.841134148719897778e-01 1.094943601073444572e+00 4.459425812645620546e+00
